37 50
uzbekiston 3.04967 -0.01383 0.06477 0.15230 -0.02342 -0.02341 0.15792 0.07674 -0.04695 0.05426 -0.04634 -0.04657 0.02420 -0.19133 -0.17249 -0.05623 -0.10128 0.03142 -0.09080 -0.14123 0.14656 -0.02258 0.00675 -0.14247 -0.05444 0.01109 -0.11510 0.03757 -0.06006 -0.02917 -0.06017 0.18523 -0.00135 -0.10577 0.08225 -0.12208 0.02089 -0.19597 -0.13282 0.01969 0.07385 0.01714 -0.01156 -0.03011 -0.14785 -0.07198 -0.04606 0.10571 0.03436 -0.17630
rossiya 0.03241 2.96149 -0.06769 0.06117 0.10310 0.09313 -0.08392 -0.03092 0.03313 0.09755 -0.04792 -0.01857 -0.11063 -0.11962 0.08125 0.13562 -0.00720 0.10035 0.03616 -0.06451 0.03614 0.15380 -0.00358 0.15646 -0.26197 0.08219 0.00870 -0.02990 0.00918 -0.19876 -0.02197 0.03571 0.14779 -0.05183 -0.08085 -0.05018 0.09154 0.03288 -0.05298 0.05133 0.00971 0.09686 -0.07021 -0.03277 -0.03921 -0.14635 0.02961 0.02611 0.00051 -0.02346
qozogiston -0.14154 -0.04206 2.96573 -0.08023 -0.01613 0.04041 0.18862 0.01746 0.02576 -0.00744 -0.19188 -0.00265 0.00602 0.24632 -0.01924 0.03015 -0.00347 -0.11687 0.11428 0.07519 0.07910 -0.09094 0.14028 -0.14019 0.05869 0.21905 -0.09905 -0.05663 0.00997 -0.05035 -0.15507 0.00686 -0.10623 0.04736 -0.09194 0.15499 -0.07833 -0.03221 0.08135 -0.12309 0.02275 0.13071 -0.16075 0.01846 0.02599 0.07818 -0.12370 -0.13205 0.05219 0.02970
qirgiziston 0.02505 0.03464 -0.06800 3.02323 0.02931 -0.07144 0.18658 0.04738 -0.11913 0.06566 -0.09747 0.07871 0.11586 -0.08207 0.09634 0.04128 0.08221 0.18968 -0.02454 -0.07537 -0.08895 -0.08158 -0.00771 0.03412 0.02767 0.08272 0.00130 0.14535 -0.02647 0.27202 0.06257 -0.08572 -0.10709 0.04825 -0.02235 0.07140 0.04732 -0.00728 -0.08468 -0.15148 -0.04465 0.08564 0.02141 -0.12457 0.01732 0.03853 -0.08839 0.01537 0.00582 -0.11430
tojikiston 0.03578 0.05608 0.10831 0.10538 2.86223 -0.09378 0.05150 0.05138 0.05150 0.38527 0.05709 0.11356 0.09540 0.06514 -0.03153 0.07590 -0.07728 -0.02368 -0.04854 0.00819 0.23147 -0.18673 0.06863 -0.16127 -0.04719 0.10890 0.00643 -0.10777 -0.07153 0.06796 -0.07304 0.02165 0.00456 -0.06516 0.21439 0.06339 -0.20251 0.01865 -0.06618 0.08524 -0.07925 -0.01147 0.05050 0.08658 -0.12003 -0.03345 -0.04749 -0.06533 0.17655 0.04050
toshkent 2.87391 0.09179 0.21222 0.10325 -0.15194 1.45158 1.62669 -0.07077 0.04438 0.07746 -0.09269 -0.00595 -0.32413 -0.10244 -0.02526 -0.12478 0.16324 -0.14301 -0.04400 0.01307 0.14413 -0.14359 0.11632 0.00102 -0.09815 0.04621 0.01991 -0.06002 0.00698 -0.03853 0.01135 0.06621 0.15860 -0.12378 0.21330 -0.19521 -0.01518 0.05883 0.02810 -0.06227 -0.02081 -0.04930 -0.05894 0.08496 0.03570 -0.06929 0.08996 0.03073 0.08129 0.06296
moskva -0.08290 2.94398 0.07473 0.06104 -0.00209 1.51173 1.62777 -0.05916 0.05471 -0.02022 -0.02177 0.10988 0.08254 0.08135 0.13055 0.00210 0.06820 -0.03103 0.03242 -0.01301 0.00970 0.05952 -0.08182 0.20924 -0.10060 -0.12142 0.11581 0.07917 0.06241 0.06283 -0.00122 -0.08973 0.00758 -0.06772 0.09751 -0.01471 -0.08255 -0.03214 0.04129 -0.05637 -0.08222 0.02437 0.02450 -0.05069 -0.04710 0.02320 -0.14481 -0.14075 -0.07184 -0.02134
ostona 0.03109 0.14754 3.08577 -0.01599 -0.00190 1.39975 1.49815 -0.02887 0.03227 -0.08272 0.05193 0.15327 -0.01088 0.04017 0.06901 -0.04012 0.02241 0.00126 0.00977 -0.07730 0.00245 0.04980 0.14511 0.09593 0.21532 -0.07673 0.08723 0.01833 0.21898 -0.08083 -0.08397 -0.05994 -0.21239 -0.05258 -0.07591 0.01504 0.03418 0.18762 0.09504 -0.05769 -0.08984 0.04919 -0.13202 0.18315 0.11794 -0.04692 -0.17131 0.13539 -0.01145 0.12378
bishkek -0.15944 -0.05994 0.00052 3.00470 -0.04501 1.56228 1.39324 -0.01424 0.01203 0.05144 0.07116 -0.11246 -0.15341 0.12777 0.03323 -0.07485 0.15512 0.01157 0.11793 0.00675 0.20607 0.17553 -0.02490 0.09716 0.06454 0.13686 -0.09649 0.06861 0.10584 -0.17587 -0.11833 -0.20392 -0.02694 0.07175 0.15024 0.00741 0.16286 -0.13801 -0.17034 -0.00555 0.03841 -0.00327 -0.20674 -0.00891 -0.13045 0.06697 0.03666 -0.09399 -0.05139 -0.10592
dushanbe -0.00627 0.09551 -0.09857 0.05040 2.94697 1.42071 1.48930 -0.10352 -0.05536 -0.11979 0.19647 0.00353 -0.06997 0.02140 -0.01123 -0.02210 0.06142 0.07575 -0.05305 -0.05758 -0.02751 -0.23019 -0.15152 0.13669 0.16450 -0.02490 0.05766 0.03113 0.30789 0.11196 -0.01279 -0.09555 -0.16064 0.02035 -0.07564 -0.14223 -0.06466 -0.10815 0.16871 0.08816 -0.00080 0.14799 0.00774 -0.08613 0.15231 0.05389 -0.10372 -0.01903 -0.08756 -0.13828
samarqand 3.09262 0.19094 -0.13986 0.05630 -0.06506 1.45129 -0.05924 -0.08640 0.00485 -0.08310 0.02705 -0.00502 -0.02389 -0.09076 -0.05768 0.07554 0.05009 -0.09776 0.00993 0.07514 -0.16694 0.05434 -0.06626 0.05706 -0.07633 -0.18049 -0.16275 0.00481 0.02597 -0.09043 0.06386 -0.16615 -0.00661 -0.12110 -0.06518 0.00474 -0.08604 -0.03846 0.10063 -0.05769 0.08357 -0.11297 0.05298 0.14416 -0.24716 -0.07969 0.05771 -0.02030 0.03711 -0.06040
buxoro 3.00866 -0.01557 0.11678 0.02544 0.03376 1.45881 -0.04876 -0.04326 0.03945 -0.04210 0.02898 0.20754 0.08711 -0.03260 0.12012 -0.04081 -0.20381 -0.10081 -0.18708 -0.03515 0.00184 0.16764 0.03269 -0.02191 0.08294 -0.22111 0.02356 0.07709 -0.14786 0.11438 0.03385 -0.04153 0.06328 0.22707 0.01819 0.02482 -0.04594 -0.08498 0.08303 -0.08561 0.00716 -0.04777 0.04790 0.03337 0.10375 -0.05100 -0.02699 -0.09788 -0.04443 0.03773
andijon 3.07570 -0.09222 0.08696 0.13556 0.04134 1.68768 -0.07738 -0.12447 -0.17787 0.14960 0.06544 -0.00556 0.02800 -0.11255 0.24458 0.01292 0.01094 0.07258 0.04810 0.02239 -0.07905 0.04715 0.18820 0.13454 0.15932 -0.05112 -0.09896 -0.01258 0.00557 0.10942 -0.16925 0.15296 -0.01580 -0.04269 -0.10121 -0.16549 0.08232 0.00733 -0.12900 -0.12951 -0.03358 0.16690 -0.02596 -0.15031 -0.02457 -0.02727 -0.26969 -0.00543 -0.02309 0.06962
namangan 3.18490 0.11266 -0.02689 -0.11065 0.25734 1.50592 0.00139 -0.00241 0.01981 -0.01444 -0.05737 -0.05469 -0.00328 -0.05434 -0.07128 0.01064 -0.02550 0.15040 -0.26510 0.10915 0.12461 -0.20734 -0.03427 -0.03714 -0.14075 -0.07778 -0.11106 0.17523 0.09357 0.12716 0.07217 -0.11291 -0.05245 0.04894 -0.12221 0.07130 -0.02403 -0.03748 0.07110 0.04443 -0.03610 0.11593 -0.10811 0.06159 0.05931 -0.03095 0.03261 -0.12511 0.09240 -0.01849
xiva 2.94773 0.10490 -0.07043 -0.14085 -0.15566 1.56060 -0.12804 0.17548 -0.20819 0.16965 0.02110 -0.00967 -0.05449 0.03991 -0.00376 0.11033 0.01142 0.01503 -0.03636 -0.00569 0.03078 -0.17102 -0.13482 0.07433 0.01709 -0.01840 0.00184 0.03476 -0.05398 -0.07783 0.01958 -0.09784 0.04083 -0.17026 0.10292 0.04726 0.02560 0.09827 0.16655 0.10144 -0.18409 -0.12796 -0.06248 0.00261 0.05177 -0.07257 0.01868 -0.07554 -0.06115 -0.14067
nukus 2.90768 -0.13517 -0.09759 0.10536 -0.09494 1.76324 0.04933 0.01848 -0.08584 0.07003 -0.05756 0.01220 0.25601 -0.00961 0.11493 -0.07032 -0.00350 0.17708 -0.06270 0.18124 0.07078 -0.05625 0.06324 0.09726 0.06218 -0.15702 -0.07271 -0.02475 -0.00744 0.06207 0.01777 -0.13353 0.03802 0.06106 0.05598 0.10808 0.08339 0.04592 -0.00702 -0.16610 0.04296 0.02077 0.02716 -0.12767 -0.10811 0.10532 -0.00396 0.06815 0.00283 0.00298
non 0.09383 -0.05160 0.00961 -0.04623 -0.04345 -0.03092 0.02221 2.95213 0.12558 -0.08946 -0.01869 -0.04397 0.14470 0.01966 0.10318 -0.14856 0.02671 0.08896 0.00823 0.10655 -0.05173 0.14093 0.22989 -0.03628 -0.04455 0.14534 0.15796 -0.05229 -0.04202 -0.02818 -0.13445 -0.09187 -0.10041 -0.07678 -0.00347 0.02342 0.15505 -0.09984 0.09843 -0.02140 -0.00495 0.06748 -0.11227 0.03824 0.01665 0.04925 0.02892 0.24553 -0.06377 -0.05310
choy -0.06231 -0.05555 -0.06374 0.11890 0.14205 -0.05707 -0.08324 3.04714 -0.05522 0.06329 0.02029 -0.15157 0.15475 0.17959 -0.06128 -0.03877 0.02859 0.03345 0.06585 0.20102 -0.01769 -0.07983 -0.13793 -0.07309 -0.00331 0.17946 -0.05176 0.02238 -0.00164 0.11884 0.25269 -0.05309 -0.04894 0.10442 0.06819 0.18467 0.05839 -0.03593 0.05907 0.11087 0.08205 0.05073 0.10667 0.11693 0.13822 0.06487 -0.01671 0.01467 0.12065 -0.08169
osh 0.03687 -0.03933 0.00287 0.12785 0.01911 0.00464 -0.13599 3.07463 0.06455 0.21633 -0.03078 0.02192 0.02494 0.15775 -0.00953 0.02790 0.06079 0.01866 -0.04464 0.01941 0.10736 -0.10265 0.01330 -0.07001 0.11950 -0.15232 -0.05589 0.03772 0.15655 -0.00658 -0.05552 0.18812 -0.14480 -0.21988 0.04400 -0.05021 -0.10212 0.07084 0.02438 -0.05641 -0.12803 0.08725 0.06502 -0.00992 0.18466 -0.10701 -0.15255 -0.06919 -0.00456 0.02433
palov -0.02412 0.03521 -0.12515 0.14438 -0.00822 0.11173 0.03427 3.04568 0.05698 0.04477 0.06427 0.13292 0.01965 0.07090 -0.00897 0.14401 -0.06764 0.18009 -0.00402 -0.14308 0.01281 -0.06811 0.08406 -0.06526 -0.04462 -0.18895 -0.04523 -0.24239 -0.15839 0.07604 0.07858 0.04255 -0.09670 -0.00477 -0.00036 -0.11584 0.15034 0.08774 -0.02210 0.00269 0.02084 -0.20417 -0.02472 -0.06820 -0.10016 -0.02811 0.17977 0.06408 -0.05712 0.05726
somsa 0.13994 0.09246 0.00596 -0.06469 0.06982 0.03935 0.08952 3.06352 0.10496 -0.05352 0.13174 0.01976 0.20753 -0.06892 0.17360 0.01979 -0.06514 -0.04839 -0.03203 0.04242 0.05228 -0.05737 -0.00244 0.21423 0.17275 0.04363 0.00380 0.01200 0.06135 -0.10228 -0.02574 -0.16686 0.03992 0.06472 -0.04832 0.15740 -0.12258 -0.14644 0.02245 0.10471 0.16839 -0.04589 0.10787 -0.00385 -0.01726 0.08837 0.06523 -0.15764 0.14765 0.13801
kabob -0.06256 0.03958 0.04940 0.02607 -0.05503 -0.06716 -0.00256 3.11727 0.05436 -0.03706 0.07717 -0.28485 0.11488 -0.17397 -0.03624 -0.11197 -0.12947 0.11608 -0.04677 0.03465 -0.00469 0.04770 0.00768 -0.12830 0.09963 -0.04938 -0.15566 -0.04281 0.15008 0.08502 -0.03487 -0.03493 -0.03216 0.20767 0.03819 0.04300 0.10303 0.02388 -0.02590 -0.01963 -0.00716 -0.00372 0.07276 0.00519 0.07326 -0.00807 0.00786 -0.19982 0.09163 0.03465
kompyuter 0.09980 -0.28963 0.20884 -0.01396 0.11082 -0.10399 0.06128 -0.10534 2.93762 0.19140 -0.01907 0.02174 0.08701 0.04957 0.01504 0.03650 0.24034 -0.00576 0.02011 0.10507 0.11055 0.11870 0.06387 -0.11430 0.16334 -0.11463 0.03026 -0.07543 -0.00641 0.03288 0.03214 0.04219 0.16137 0.04535 -0.02442 0.09641 0.11895 -0.12276 0.05974 0.07012 -0.02976 0.13757 -0.01501 0.01256 -0.01731 0.00156 -0.10963 -0.14401 0.15945 -0.08470
dastur -0.09914 -0.21534 -0.06390 -0.13231 0.16420 0.10098 -0.06882 0.22524 3.09818 -0.03248 -0.24994 0.22909 -0.13896 -0.16454 0.10226 0.24398 0.13843 0.05639 0.05948 0.08534 0.07589 0.02812 0.01042 -0.00626 -0.07540 -0.02807 -0.16930 -0.00983 -0.09886 -0.11036 0.01799 0.13920 0.09183 -0.15705 -0.09896 0.09408 -0.09825 -0.02246 0.05501 -0.09683 0.01054 -0.13340 -0.06014 0.03198 -0.15930 0.04405 -0.00196 0.05525 0.02239 0.13641
internet 0.01252 -0.04294 0.01223 0.05433 0.00489 0.00406 -0.07020 -0.06629 2.85974 0.17496 -0.12439 -0.06929 -0.07184 0.08949 -0.02949 0.12477 -0.06735 0.02790 -0.08353 0.21451 -0.11876 0.03098 0.06338 0.04138 -0.01853 -0.01298 0.00438 -0.01470 0.09639 0.22105 -0.05575 -0.13698 -0.00883 0.25797 -0.08037 0.16391 0.16777 -0.05536 0.05690 0.16284 -0.03791 -0.02036 -0.05817 -0.10148 -0.06493 -0.12239 0.00341 -0.07700 0.02338 -0.15559
telefon 0.03309 0.08335 -0.19937 0.03741 0.12277 -0.12096 0.16726 0.04190 2.92950 -0.00558 0.05583 0.00760 0.05388 -0.09207 0.01694 -0.14137 -0.01112 -0.09039 -0.07355 0.12361 0.10913 0.06091 -0.10923 -0.03164 0.12131 0.01417 0.23193 0.03933 0.01920 -0.03091 0.01335 -0.01525 0.07081 0.09567 -0.07860 -0.13312 -0.18362 0.05080 -0.11034 -0.21529 0.03886 0.24930 -0.00061 0.08385 0.00818 -0.00989 0.09191 -0.02903 0.02674 0.03217
dasturlash -0.06681 0.09920 -0.01750 -0.07557 0.05365 -0.08985 0.00282 -0.00091 3.10859 0.04747 -0.00250 0.08178 0.13902 0.05578 0.00104 -0.13118 -0.10651 -0.03052 -0.06095 -0.01870 0.00566 0.05297 -0.00705 0.04865 0.00645 -0.19755 -0.09393 -0.01441 -0.12097 0.05999 0.15308 0.12188 -0.02134 0.14907 0.01487 -0.03371 -0.06134 -0.03025 -0.03882 0.01704 0.01606 0.00030 0.04369 0.11906 0.09496 -0.14849 -0.25539 0.09343 -0.13669 -0.02248
kod -0.11701 -0.18020 0.05415 0.07592 -0.05765 -0.25910 -0.05462 0.03918 2.85211 0.01834 -0.00153 0.05793 0.01196 -0.09731 0.11966 -0.01585 -0.00273 -0.09333 -0.04433 -0.08848 -0.01729 0.17117 -0.13719 -0.16136 0.14712 -0.02093 -0.06691 0.10399 -0.06056 0.18260 0.06779 -0.04879 0.21573 -0.06057 0.07421 0.02993 0.13017 0.15615 0.00320 -0.07534 0.04600 -0.06777 0.20134 0.01365 -0.03653 0.01847 -0.13471 -0.09716 0.12004 -0.06569
kitob -0.10469 0.05367 0.11857 0.07190 0.09960 -0.07568 -0.14218 0.15013 -0.03227 2.97492 0.13282 0.05562 0.04559 0.21650 -0.06435 0.09278 0.00570 0.02686 0.15285 0.05078 0.05383 0.10725 -0.03650 -0.08392 -0.10448 -0.19664 0.20562 -0.11032 -0.02213 -0.02768 0.03074 0.08157 0.08605 -0.05831 -0.01671 0.02826 -0.02487 0.16073 0.04910 0.07349 0.06629 0.11735 0.01810 -0.12968 0.03997 -0.06514 -0.05286 0.05864 0.12383 0.00213
maktab 0.03088 0.17022 0.02408 0.26017 0.05655 -0.17608 0.07533 0.03812 0.12898 3.06732 -0.01385 -0.12243 -0.02090 -0.08505 -0.05805 0.05886 0.16699 0.03947 -0.11959 0.04446 0.11966 -0.06098 -0.01340 0.00147 -0.07849 0.06483 -0.01209 0.04195 -0.08875 -0.04375 0.07224 -0.03728 0.17270 -0.03996 0.02247 0.09326 -0.14184 -0.17608 -0.15257 0.12626 -0.05519 0.25582 -0.05642 0.01846 0.15421 0.20061 0.20615 0.12084 0.10241 0.05925
ish 0.07784 -0.05512 -0.08182 -0.00034 -0.01702 -0.04532 0.06964 0.09553 0.00884 3.14775 -0.11417 -0.01937 -0.07168 -0.18665 -0.00827 -0.01217 0.15134 0.06308 -0.10242 0.18541 0.12210 0.05821 -0.02265 -0.09594 -0.03722 0.10887 0.18846 0.15432 -0.04888 -0.11196 0.01409 -0.17684 0.03232 -0.01476 -0.04660 -0.15947 0.05136 -0.05327 -0.11699 -0.28723 -0.00275 0.17723 0.16613 -0.04571 -0.06022 0.04688 -0.09984 0.03018 0.07661 0.12269
oila -0.01002 -0.02037 -0.08780 -0.08269 -0.02265 0.03674 0.09136 -0.08032 0.14927 2.97289 -0.00214 -0.07472 -0.24242 0.08840 0.07368 -0.02813 0.00670 0.05159 -0.15625 -0.05291 0.07943 -0.12543 0.02936 -0.13566 0.04664 -0.00356 -0.16151 0.11647 -0.07346 -0.08103 0.02006 0.11486 -0.10158 0.00617 0.04288 0.06931 0.01764 -0.03670 -0.08276 0.00861 -0.10721 -0.29214 0.04366 0.09039 -0.23629 -0.10097 0.06192 0.20575 0.00208 -0.07280
do'st -0.01829 0.13749 -0.06460 -0.07992 -0.04827 -0.09533 0.01227 0.16247 0.03231 2.97476 -0.02918 -0.15632 0.08831 -0.00778 -0.01805 0.31931 0.02988 -0.07518 -0.04264 0.11484 0.01133 -0.14383 0.09192 -0.06681 0.18733 0.10800 -0.04473 0.12810 0.00679 0.08528 0.04847 -0.08464 -0.06435 0.10300 -0.03348 -0.04036 -0.09551 0.04236 0.20625 -0.10675 0.00242 0.14122 -0.00796 0.04524 -0.10624 0.04283 -0.01871 0.09857 0.11874 0.25896
shahar 0.05796 0.03258 0.01944 -0.03532 0.03385 1.47046 0.01685 0.13176 -0.10065 2.11399 0.13171 -0.01181 -0.21219 -0.06078 0.12970 -0.00229 -0.09993 -0.05048 0.08406 0.05467 -0.02389 -0.03668 -0.03918 -0.09224 0.16154 -0.03223 0.12172 0.15213 0.09983 -0.04316 0.04037 -0.00242 -0.09037 0.03244 -0.11790 0.11877 -0.04646 0.02012 0.02833 -0.02589 0.05867 -0.04749 0.08713 -0.13460 0.01264 0.19389 -0.10003 -0.06777 0.05139 0.01796
qishloq 0.03506 0.04892 0.06347 0.11097 0.04098 -0.02413 0.06726 0.18999 -0.01326 2.90255 0.11071 -0.01204 -0.21727 0.08474 -0.05353 -0.00905 0.03320 0.01905 0.07095 -0.04355 0.05131 -0.02595 0.07388 0.06154 -0.09354 0.10860 -0.05360 0.08081 0.03673 0.18382 -0.02235 -0.03493 -0.00194 -0.03032 0.07999 -0.16163 -0.10537 -0.10678 0.09503 0.17106 -0.01044 -0.01688 0.00701 0.11619 -0.09274 0.02384 0.09752 0.05011 0.01896 0.10010
daryo -0.27032 0.06779 -0.06541 -0.18306 0.05112 0.13737 -0.01374 0.09529 0.16123 3.13149 0.16400 0.07421 0.00754 -0.16020 -0.02461 -0.08432 0.21709 -0.01759 0.01232 0.05515 0.00436 0.16951 -0.06226 0.01946 -0.07425 -0.13200 -0.06118 -0.00370 -0.04293 -0.06924 -0.14063 -0.00831 -0.15047 0.07601 0.00824 -0.14576 -0.03092 -0.07522 0.03192 0.13405 -0.18752 0.01150 -0.01601 0.06713 0.02132 -0.07520 -0.03191 -0.07960 0.10760 0.00213
tog' 0.19012 -0.00607 -0.07084 -0.15137 -0.18031 -0.15841 0.02671 0.05087 -0.15812 3.08950 -0.04831 0.01468 0.16122 0.08968 -0.02685 -0.08912 -0.21518 -0.07192 -0.02111 -0.09872 -0.01313 0.00769 -0.02249 -0.06500 0.01687 0.04419 -0.10904 0.14109 -0.00986 0.00188 0.07082 0.02332 0.09531 0.02871 -0.06124 0.03615 -0.11437 0.01086 -0.00332 -0.02081 -0.01285 -0.18818 -0.05487 0.00928 0.01599 -0.10277 0.12657 -0.08662 0.09695 0.04272
